let var0 = 0
let var1 = 1
let var2 = 2
let var3 = 3
let var4 = 4
let var5 = 5
let var6 = 6
let var7 = 7
let var8 = 8
let var9 = 9
let var10 = 10
let var11 = 11
let var12 = 12
let var13 = 13
let var14 = 14
let var15 = 15
let var16 = 16
let var17 = 17
let var18 = 18
let var19 = 19
let var20 = 20
let var21 = 21
let var22 = 22
let var23 = 23
let var24 = 24
let var25 = 25
let var26 = 26
let var27 = 27
let var28 = 28
let var29 = 29
let var30 = 30
let var31 = 31
let var32 = 32
let var33 = 33
let var34 = 34
let var35 = 35
let var36 = 36
let var37 = 37
let var38 = 38
let var39 = 39
let var40 = 40
let var41 = 41
let var42 = 42
let var43 = 43
let var44 = 44
let var45 = 45
let var46 = 46
let var47 = 47
let var48 = 48
let var49 = 49
let var50 = 50
let var51 = 51
let var52 = 52
let var53 = 53
let var54 = 54
let var55 = 55
let var56 = 56
let var57 = 57
let var58 = 58
let var59 = 59
let var60 = 60
let var61 = 61
let var62 = 62
let var63 = 63
let var64 = 64
let var65 = 65
let var66 = 66
let var67 = 67
let var68 = 68
let var69 = 69
let var70 = 70
let var71 = 71
let var72 = 72
let var73 = 73
let var74 = 74
let var75 = 75
let var76 = 76
let var77 = 77
let var78 = 78
let var79 = 79
let var80 = 80
let var81 = 81
let var82 = 82
let var83 = 83
let var84 = 84
let var85 = 85
let var86 = 86
let var87 = 87
let var88 = 88
let var89 = 89
let var90 = 90
let var91 = 91
let var92 = 92
let var93 = 93
let var94 = 94
let var95 = 95
let var96 = 96
let var97 = 97
let var98 = 98
let var99 = 99
let var100 = 100
let var101 = 101
let var102 = 102
let var103 = 103
let var104 = 104
let var105 = 105
let var106 = 106
let var107 = 107
let var108 = 108
let var109 = 109
let var110 = 110
let var111 = 111
let var112 = 112
let var113 = 113
let var114 = 114
let var115 = 115
let var116 = 116
let var117 = 117
let var118 = 118
let var119 = 119
let var120 = 120
let var121 = 121
let var122 = 122
let var123 = 123
let var124 = 124
let var125 = 125
let var126 = 126
let var127 = 127
let var128 = 128
let var129 = 129
let var130 = 130
let var131 = 131
let var132 = 132
let var133 = 133
let var134 = 134
let var135 = 135
let var136 = 136
let var137 = 137
let var138 = 138
let var139 = 139
let var140 = 140
let var141 = 141
let var142 = 142
let var143 = 143
let var144 = 144
let var145 = 145
let var146 = 146
let var147 = 147
let var148 = 148
let var149 = 149
let var150 = 150
let var151 = 151
let var152 = 152
let var153 = 153
let var154 = 154
let var155 = 155
let var156 = 156
let var157 = 157
let var158 = 158
let var159 = 159
let var160 = 160
let var161 = 161
let var162 = 162
let var163 = 163
let var164 = 164
let var165 = 165
let var166 = 166
let var167 = 167
let var168 = 168
let var169 = 169
let var170 = 170
let var171 = 171
let var172 = 172
let var173 = 173
let var174 = 174
let var175 = 175
let var176 = 176
let var177 = 177
let var178 = 178
let var179 = 179
let var180 = 180
let var181 = 181
let var182 = 182
let var183 = 183
let var184 = 184
let var185 = 185
let var186 = 186
let var187 = 187
let var188 = 188
let var189 = 189
let var190 = 190
let var191 = 191
let var192 = 192
let var193 = 193
let var194 = 194
let var195 = 195
let var196 = 196
let var197 = 197
let var198 = 198
let var199 = 199
let var200 = 200
let var201 = 201
let var202 = 202
let var203 = 203
let var204 = 204
let var205 = 205
let var206 = 206
let var207 = 207
let var208 = 208
let var209 = 209
let var210 = 210
let var211 = 211
let var212 = 212
let var213 = 213
let var214 = 214
let var215 = 215
let var216 = 216
let var217 = 217
let var218 = 218
let var219 = 219
let var220 = 220
let var221 = 221
let var222 = 222
let var223 = 223
let var224 = 224
let var225 = 225
let var226 = 226
let var227 = 227
let var228 = 228
let var229 = 229
let var230 = 230
let var231 = 231
let var232 = 232
let var233 = 233
let var234 = 234
let var235 = 235
let var236 = 236
let var237 = 237
let var238 = 238
let var239 = 239
let var240 = 240
let var241 = 241
let var242 = 242
let var243 = 243
let var244 = 244
let var245 = 245
let var246 = 246
let var247 = 247
let var248 = 248
let var249 = 249
let var250 = 250
let var251 = 251
let var252 = 252
let var253 = 253
let var254 = 254
const var255 = 255
let var256 = 256
